digraph Tree {
node [shape=box, style="filled, rounded", color="black", fontname="helvetica"] ;
edge [fontname="helvetica"] ;
0 [label="VR <= 1.5\nentropy = 0.928\nsamples = 198\nvalue = [130, 68]", fillcolor="#f3c3a1"] ;
1 [label="UR <= 1.5\nentropy = 1.0\nsamples = 121\nvalue = [61, 60]", fillcolor="#fffdfc"] ;
0 -> 1 [labeldistance=2.5, labelangle=45, headlabel="True"] ;
2 [label="SR <= -0.197\nentropy = 0.567\nsamples = 15\nvalue = [2, 13]", fillcolor="#57ace9"] ;
1 -> 2 ;
3 [label="entropy = 0.0\nsamples = 1\nvalue = [1, 0]", fillcolor="#e58139"] ;
2 -> 3 ;
4 [label="SR <= 0.431\nentropy = 0.371\nsamples = 14\nvalue = [1, 13]", fillcolor="#48a5e7"] ;
2 -> 4 ;
5 [label="entropy = 0.0\nsamples = 13\nvalue = [0, 13]", fillcolor="#399de5"] ;
4 -> 5 ;
6 [label="entropy = 0.0\nsamples = 1\nvalue = [1, 0]", fillcolor="#e58139"] ;
4 -> 6 ;
7 [label="SR <= -0.033\nentropy = 0.991\nsamples = 106\nvalue = [59, 47]", fillcolor="#fae5d7"] ;
1 -> 7 ;
8 [label="SR <= -0.154\nentropy = 0.959\nsamples = 84\nvalue = [52, 32]", fillcolor="#f5cfb3"] ;
7 -> 8 ;
9 [label="BR <= 3.5\nentropy = 0.997\nsamples = 66\nvalue = [35, 31]", fillcolor="#fcf1e8"] ;
8 -> 9 ;
10 [label="SUR3 <= 1.5\nentropy = 0.946\nsamples = 55\nvalue = [35, 20]", fillcolor="#f4c9aa"] ;
9 -> 10 ;
11 [label="RR <= 1.5\nentropy = 0.65\nsamples = 12\nvalue = [2, 10]", fillcolor="#61b1ea"] ;
10 -> 11 ;
12 [label="entropy = 0.0\nsamples = 8\nvalue = [0, 8]", fillcolor="#399de5"] ;
11 -> 12 ;
13 [label="SR <= -0.186\nentropy = 1.0\nsamples = 4\nvalue = [2, 2]", fillcolor="#ffffff"] ;
11 -> 13 ;
14 [label="entropy = 0.0\nsamples = 2\nvalue = [2, 0]", fillcolor="#e58139"] ;
13 -> 14 ;
15 [label="entropy = 0.0\nsamples = 2\nvalue = [0, 2]", fillcolor="#399de5"] ;
13 -> 15 ;
16 [label="RR <= 0.5\nentropy = 0.782\nsamples = 43\nvalue = [33, 10]", fillcolor="#eda775"] ;
10 -> 16 ;
17 [label="UR <= 9.5\nentropy = 0.931\nsamples = 26\nvalue = [17, 9]", fillcolor="#f3c4a2"] ;
16 -> 17 ;
18 [label="SR <= -0.202\nentropy = 0.629\nsamples = 19\nvalue = [16, 3]", fillcolor="#ea995e"] ;
17 -> 18 ;
19 [label="entropy = 0.811\nsamples = 4\nvalue = [1, 3]", fillcolor="#7bbeee"] ;
18 -> 19 ;
20 [label="entropy = 0.0\nsamples = 15\nvalue = [15, 0]", fillcolor="#e58139"] ;
18 -> 20 ;
21 [label="SUR3 <= 8.0\nentropy = 0.592\nsamples = 7\nvalue = [1, 6]", fillcolor="#5aade9"] ;
17 -> 21 ;
22 [label="entropy = 0.0\nsamples = 6\nvalue = [0, 6]", fillcolor="#399de5"] ;
21 -> 22 ;
23 [label="entropy = 0.0\nsamples = 1\nvalue = [1, 0]", fillcolor="#e58139"] ;
21 -> 23 ;
24 [label="SUR1 <= 1.5\nentropy = 0.323\nsamples = 17\nvalue = [16, 1]", fillcolor="#e78945"] ;
16 -> 24 ;
25 [label="entropy = 0.0\nsamples = 11\nvalue = [11, 0]", fillcolor="#e58139"] ;
24 -> 25 ;
26 [label="SUR3 <= 8.0\nentropy = 0.65\nsamples = 6\nvalue = [5, 1]", fillcolor="#ea9a61"] ;
24 -> 26 ;
27 [label="entropy = 0.0\nsamples = 5\nvalue = [5, 0]", fillcolor="#e58139"] ;
26 -> 27 ;
28 [label="entropy = 0.0\nsamples = 1\nvalue = [0, 1]", fillcolor="#399de5"] ;
26 -> 28 ;
29 [label="entropy = 0.0\nsamples = 11\nvalue = [0, 11]", fillcolor="#399de5"] ;
9 -> 29 ;
30 [label="SUR1 <= 0.5\nentropy = 0.31\nsamples = 18\nvalue = [17, 1]", fillcolor="#e78845"] ;
8 -> 30 ;
31 [label="entropy = 0.0\nsamples = 1\nvalue = [0, 1]", fillcolor="#399de5"] ;
30 -> 31 ;
32 [label="entropy = 0.0\nsamples = 17\nvalue = [17, 0]", fillcolor="#e58139"] ;
30 -> 32 ;
33 [label="SUR1 <= 2.5\nentropy = 0.902\nsamples = 22\nvalue = [7, 15]", fillcolor="#95cbf1"] ;
7 -> 33 ;
34 [label="SUR1 <= 0.5\nentropy = 0.946\nsamples = 11\nvalue = [7, 4]", fillcolor="#f4c9aa"] ;
33 -> 34 ;
35 [label="entropy = 0.0\nsamples = 4\nvalue = [4, 0]", fillcolor="#e58139"] ;
34 -> 35 ;
36 [label="BR <= 0.5\nentropy = 0.985\nsamples = 7\nvalue = [3, 4]", fillcolor="#cee6f8"] ;
34 -> 36 ;
37 [label="entropy = 0.0\nsamples = 3\nvalue = [0, 3]", fillcolor="#399de5"] ;
36 -> 37 ;
38 [label="BR <= 1.5\nentropy = 0.811\nsamples = 4\nvalue = [3, 1]", fillcolor="#eeab7b"] ;
36 -> 38 ;
39 [label="UR <= 8.0\nentropy = 1.0\nsamples = 2\nvalue = [1, 1]", fillcolor="#ffffff"] ;
38 -> 39 ;
40 [label="entropy = 0.0\nsamples = 1\nvalue = [0, 1]", fillcolor="#399de5"] ;
39 -> 40 ;
41 [label="entropy = 0.0\nsamples = 1\nvalue = [1, 0]", fillcolor="#e58139"] ;
39 -> 41 ;
42 [label="entropy = 0.0\nsamples = 2\nvalue = [2, 0]", fillcolor="#e58139"] ;
38 -> 42 ;
43 [label="entropy = 0.0\nsamples = 11\nvalue = [0, 11]", fillcolor="#399de5"] ;
33 -> 43 ;
44 [label="RR <= 3.5\nentropy = 0.481\nsamples = 77\nvalue = [69, 8]", fillcolor="#e89050"] ;
0 -> 44 [labeldistance=2.5, labelangle=-45, headlabel="False"] ;
45 [label="SUR3 <= 9.5\nentropy = 0.225\nsamples = 55\nvalue = [53, 2]", fillcolor="#e68640"] ;
44 -> 45 ;
46 [label="entropy = 0.0\nsamples = 45\nvalue = [45, 0]", fillcolor="#e58139"] ;
45 -> 46 ;
47 [label="SR <= -0.203\nentropy = 0.722\nsamples = 10\nvalue = [8, 2]", fillcolor="#eca06a"] ;
45 -> 47 ;
48 [label="entropy = 0.0\nsamples = 1\nvalue = [0, 1]", fillcolor="#399de5"] ;
47 -> 48 ;
49 [label="UR <= 1.5\nentropy = 0.503\nsamples = 9\nvalue = [8, 1]", fillcolor="#e89152"] ;
47 -> 49 ;
50 [label="entropy = 0.0\nsamples = 1\nvalue = [0, 1]", fillcolor="#399de5"] ;
49 -> 50 ;
51 [label="entropy = 0.0\nsamples = 8\nvalue = [8, 0]", fillcolor="#e58139"] ;
49 -> 51 ;
52 [label="UR <= 1.5\nentropy = 0.845\nsamples = 22\nvalue = [16, 6]", fillcolor="#efb083"] ;
44 -> 52 ;
53 [label="entropy = 0.0\nsamples = 8\nvalue = [8, 0]", fillcolor="#e58139"] ;
52 -> 53 ;
54 [label="SUR1 <= 1.5\nentropy = 0.985\nsamples = 14\nvalue = [8, 6]", fillcolor="#f8e0ce"] ;
52 -> 54 ;
55 [label="UR <= 8.0\nentropy = 0.65\nsamples = 6\nvalue = [5, 1]", fillcolor="#ea9a61"] ;
54 -> 55 ;
56 [label="entropy = 0.0\nsamples = 1\nvalue = [0, 1]", fillcolor="#399de5"] ;
55 -> 56 ;
57 [label="entropy = 0.0\nsamples = 5\nvalue = [5, 0]", fillcolor="#e58139"] ;
55 -> 57 ;
58 [label="SUR3 <= 6.0\nentropy = 0.954\nsamples = 8\nvalue = [3, 5]", fillcolor="#b0d8f5"] ;
54 -> 58 ;
59 [label="entropy = 0.0\nsamples = 4\nvalue = [0, 4]", fillcolor="#399de5"] ;
58 -> 59 ;
60 [label="SUR1 <= 3.0\nentropy = 0.811\nsamples = 4\nvalue = [3, 1]", fillcolor="#eeab7b"] ;
58 -> 60 ;
61 [label="entropy = 0.0\nsamples = 1\nvalue = [0, 1]", fillcolor="#399de5"] ;
60 -> 61 ;
62 [label="entropy = 0.0\nsamples = 3\nvalue = [3, 0]", fillcolor="#e58139"] ;
60 -> 62 ;
}